# Input file: /var/test.in
# Token count: 6
# Smoothing: Modified Kneser-Ney
\data\
ngram 1=6
ngram 2=7

\1-grams:
-0.8908555	<unk>	0
0	<s>	-0.22184873
-0.8908555	</s>	0
-0.46488678	模型	0
-0.69896996	语言	-0.30103
-0.69896996	传统	-0.30103

\2-grams:
-0.8908555	模型 </s>
-0.50267535	语言 </s>
-0.24850096	传统 </s>
-0.44889864	<s> 模型
-0.37527603	语言 模型
-0.56863624	<s> 语言
-0.6575773	<s> 传统

\end\
